17 100
</s> 0.004003 0.004419 -0.003830 -0.003278 0.001367 0.003021 0.000941 0.000211 -0.003604 0.002218 -0.004356 0.001250 -0.000751 -0.000957 -0.003316 -0.001882 0.002579 0.003025 0.002969 0.001597 0.001545 -0.003803 -0.004096 0.004970 0.003801 0.003090 -0.000604 0.004016 -0.000495 0.000735 -0.000149 -0.002983 0.001312 -0.001337 -0.003825 0.004754 0.004379 -0.001095 -0.000226 0.000509 -0.003638 -0.004007 0.004555 0.000063 -0.002582 -0.003042 -0.003076 0.001697 0.000201 0.001331 -0.004214 -0.003808 -0.000130 0.001144 0.002550 -0.003170 0.004080 0.000927 0.001120 -0.000608 0.002986 -0.002288 -0.002097 0.002158 -0.000753 0.001031 0.001805 -0.004089 -0.001983 0.002914 0.004232 0.003932 -0.003047 -0.002108 -0.000909 0.002001 -0.003788 0.002998 0.002788 -0.001599 -0.001552 -0.002238 0.004229 0.003912 -0.001180 0.004215 0.004820 0.001815 0.004983 -0.003111 -0.001532 -0.002107 -0.002907 0.002815 0.001579 0.000425 -0.002194 0.001524 0.003059 0.000194 
有限公司 0.002139 -0.005058 0.004397 0.000420 -0.001619 -0.002073 -0.000841 -0.003010 -0.004506 -0.002675 0.004150 -0.001747 -0.002759 0.002251 -0.001808 0.004820 -0.001440 -0.004494 0.002745 0.000113 -0.003663 0.000912 0.001438 -0.000587 0.001828 -0.003947 0.000811 0.001910 -0.003050 0.000200 0.000069 -0.002326 -0.003054 -0.004588 0.000046 0.000209 0.000069 -0.003873 -0.004866 -0.004822 -0.004347 -0.000531 0.001320 0.001231 -0.003097 0.005050 -0.002093 -0.001239 -0.001300 0.004747 -0.003648 0.001086 -0.001324 0.003166 0.000006 0.004241 -0.002798 -0.002526 -0.004291 -0.003702 -0.003138 -0.003163 0.002446 -0.001924 0.002650 0.003700 0.001473 0.002951 0.002568 0.002433 -0.003389 -0.003506 -0.003512 -0.000257 0.004078 -0.002775 -0.003229 -0.004052 0.003041 -0.004336 -0.000447 0.002316 -0.004629 -0.004383 0.001656 0.003683 0.004147 0.002023 0.003339 -0.003133 -0.003617 0.004082 -0.002725 0.001790 0.000678 0.001948 -0.001288 0.000224 -0.001667 -0.001036 
股份 -0.004495 -0.003295 0.003539 0.000943 -0.002149 -0.001543 0.002362 -0.003633 -0.002424 0.004901 0.004148 -0.003933 0.000748 -0.002311 0.000082 0.003017 0.005136 0.002103 0.004102 0.003317 -0.000360 0.004357 0.002553 0.004663 -0.001671 0.004808 0.004227 -0.001341 -0.004451 0.004979 0.001053 -0.001961 -0.000932 -0.000677 -0.003850 -0.001336 -0.000331 -0.004872 -0.003384 -0.001320 -0.000969 0.001825 0.000760 -0.000535 0.003117 0.001559 0.000494 0.003658 -0.001080 -0.001446 -0.000299 -0.002833 -0.002987 0.000166 0.004359 -0.001471 0.000018 -0.004130 0.003576 -0.001529 0.002983 -0.002448 -0.000993 0.000057 0.003605 -0.000137 0.004588 -0.000769 0.002181 -0.000044 -0.003717 0.004229 0.001220 -0.003156 0.002978 -0.004245 -0.004498 0.003453 -0.003758 -0.002849 0.003671 0.003450 0.000762 0.004677 0.005048 0.004232 0.001605 -0.004488 0.002503 -0.004883 -0.001255 0.001618 0.000988 -0.001542 0.003075 -0.004464 -0.001599 -0.001295 -0.001688 0.003193 
银行 -0.004813 0.002707 0.001371 0.002718 0.003924 0.000314 0.000662 -0.004583 -0.001138 0.003409 -0.001968 0.004266 -0.001293 -0.003877 -0.002701 0.004881 0.003597 -0.003772 0.004756 -0.003918 -0.004926 0.002260 -0.000695 -0.002461 -0.000351 -0.002469 0.002235 0.003913 0.004150 -0.004233 -0.001913 0.000173 -0.001199 0.003893 0.002245 0.004604 -0.002943 0.001814 0.004455 -0.001904 0.002861 0.001318 -0.004556 0.004225 0.004849 -0.002812 -0.000324 -0.001560 0.002526 -0.003780 0.003682 -0.001023 -0.001125 -0.002057 -0.004386 -0.003129 -0.001113 0.004666 -0.002652 -0.004636 0.000425 0.000595 0.002905 -0.000008 0.003408 0.002926 -0.001132 -0.000668 0.000833 0.001371 0.003560 0.003884 -0.002246 -0.002665 -0.001704 -0.002740 0.001051 -0.003597 -0.002632 -0.005135 0.002323 0.004512 -0.002105 -0.004387 0.003158 0.001709 -0.002707 -0.000772 -0.000961 -0.000090 -0.001764 0.000169 -0.002709 0.003736 0.003880 0.003444 -0.001673 0.000290 0.000799 -0.002483 
中国 -0.004772 -0.001076 -0.001932 0.002958 0.002827 0.001835 -0.003164 0.003489 -0.001651 0.003462 0.001272 0.004790 0.002515 0.000687 -0.002341 0.004980 -0.002134 0.003366 0.005014 0.004976 -0.000799 0.003239 0.004527 -0.002220 0.004690 -0.004971 0.000212 -0.000392 0.004234 -0.004285 -0.001425 -0.001546 0.000317 0.004821 -0.001657 -0.004882 -0.001460 0.004277 0.001097 0.002889 -0.003844 -0.001261 0.000499 -0.002345 0.003584 -0.004786 0.003263 -0.002355 0.003236 0.003189 -0.001836 0.003516 0.000407 0.004745 -0.003551 -0.001288 0.002803 0.004466 0.002236 -0.001006 0.000518 -0.000791 0.001935 0.002561 -0.003861 -0.001335 0.004327 0.000285 0.005026 0.004856 0.000914 -0.004671 0.004637 0.002094 -0.004663 0.003645 -0.004957 -0.002177 0.004339 0.003266 -0.000664 0.001275 -0.003116 -0.004664 0.002271 0.004498 0.003998 0.002787 0.001603 0.001945 -0.000077 0.001627 -0.002542 0.000960 0.000973 -0.000002 0.002453 0.000751 -0.004143 -0.001296 
管理 0.001996 0.003492 -0.003748 0.001006 0.003701 0.003795 -0.004192 0.002750 -0.002735 -0.001376 0.001211 0.002320 -0.004078 -0.002703 0.001214 0.000298 0.004655 0.002208 -0.002724 0.000079 0.000802 -0.002427 0.003264 -0.002794 0.004977 0.000726 -0.004533 0.000423 -0.000468 0.000963 0.003119 0.000184 -0.000348 0.000396 -0.002776 -0.000249 0.003295 0.003521 0.002018 -0.005024 0.000226 -0.002578 0.003609 0.004315 0.003314 0.001598 0.001212 -0.001720 -0.002401 -0.001954 -0.003879 0.000273 0.000825 0.001344 0.002151 -0.003948 0.003157 -0.001380 -0.004279 0.003932 -0.002846 -0.000792 -0.004169 0.004667 -0.001947 -0.004704 0.003944 0.001536 0.003573 0.001356 0.003745 0.000372 0.003717 0.004312 0.001689 -0.000603 0.001113 0.003998 -0.003247 -0.000676 0.001277 0.002129 0.000625 0.003718 0.001496 0.003365 -0.003360 -0.002031 0.002021 0.004693 0.001626 0.000741 -0.004601 -0.004317 0.004376 0.002474 -0.003079 -0.001622 -0.003897 -0.003360 
保险 0.004454 -0.002729 0.001056 -0.001109 -0.002183 -0.000547 -0.004611 -0.002315 -0.000244 0.004438 -0.001884 0.003721 -0.004524 0.004209 0.000644 0.000235 0.002631 0.003317 -0.003184 0.003115 0.001328 -0.001222 0.003112 0.000479 0.004281 0.000208 -0.001644 0.003265 -0.003398 -0.000430 0.004061 0.004717 -0.004057 0.001357 0.004035 0.000533 0.002550 0.002686 0.004716 -0.000919 -0.001056 0.003041 -0.005001 0.001110 0.000382 0.004445 -0.003657 -0.000093 0.004474 0.001463 0.002629 0.001267 0.001393 0.001075 0.000223 0.003448 0.003794 0.002883 -0.001933 -0.002756 -0.003200 -0.001118 -0.002462 -0.004092 -0.001890 0.003581 0.002635 -0.004726 -0.002112 0.004052 -0.000348 0.003575 -0.001224 -0.000230 -0.002480 0.001641 -0.004129 0.002868 -0.002342 0.002720 -0.003076 -0.002270 0.004058 0.002603 0.002041 0.001515 0.002955 -0.000471 0.003913 0.003708 0.003394 0.004339 -0.002372 -0.003687 -0.003286 0.000301 0.000896 0.003932 -0.003162 0.003180 
财产 0.003814 0.003509 0.000239 0.001282 -0.000773 0.004657 -0.004343 -0.004757 0.001988 -0.000591 0.004674 -0.001353 0.000036 0.002090 0.001059 -0.002919 0.003390 0.000024 0.001398 -0.001263 0.004623 0.002693 0.004389 0.004566 -0.000928 0.001916 0.001522 -0.002234 0.004329 0.002382 -0.003328 0.004163 0.000463 0.001147 -0.003671 0.002011 0.000239 -0.002389 -0.000624 0.002072 -0.001196 0.004010 -0.002840 -0.002302 0.003796 0.004650 0.003739 0.004598 -0.004744 -0.003343 -0.004710 0.001042 -0.004043 -0.000353 0.000895 -0.002137 0.001192 -0.004423 0.001905 -0.001651 -0.001656 -0.001053 0.002187 -0.001717 -0.002268 -0.003141 -0.001808 -0.004142 0.001989 -0.001229 -0.001227 0.002015 -0.003865 -0.003299 -0.004577 -0.000185 -0.001964 -0.004700 0.001986 -0.004808 -0.002163 0.001558 0.004952 -0.003506 -0.001944 0.004948 0.003108 0.004357 0.003863 -0.002601 -0.002122 0.002130 0.002976 0.003733 0.003356 -0.004485 -0.004480 0.000718 -0.004442 0.002924 
上海 0.004142 -0.002049 0.003828 -0.004988 0.004349 -0.002363 -0.000829 -0.004842 0.002970 0.004194 -0.004151 -0.000872 0.000947 0.004380 0.000092 -0.004850 0.000734 -0.001725 0.000939 0.004084 -0.002912 -0.002676 -0.000442 -0.001094 -0.001695 -0.003473 -0.000074 -0.004028 0.004076 0.002718 -0.001288 0.003118 -0.002934 -0.004528 0.004398 0.001167 0.002876 -0.003279 -0.001222 0.003551 -0.001411 0.000982 -0.004599 -0.003960 0.004842 -0.004512 0.001007 -0.003201 0.003938 -0.000374 0.004403 -0.003337 0.001115 -0.004564 -0.003224 -0.001093 0.004204 -0.002458 0.002279 -0.000579 0.003177 0.002763 -0.002689 -0.003678 0.000676 0.000834 0.000772 0.000439 0.002158 0.003829 0.003910 -0.004967 0.004947 -0.004061 0.000535 -0.003913 -0.000945 0.004688 -0.002604 0.001514 -0.002143 -0.000770 0.003424 0.002540 -0.004162 0.001743 -0.000357 0.002028 0.000804 -0.003379 0.000335 -0.003899 0.002889 0.001062 0.001700 0.002813 0.004814 0.004514 0.002524 0.002943 
物业 0.001926 -0.001014 0.004568 -0.000241 0.001766 -0.000877 0.001364 -0.000765 0.004207 0.001991 -0.000414 -0.000422 0.002226 -0.003167 -0.001941 0.001517 0.000957 -0.004002 -0.001746 -0.001630 -0.002222 0.003765 0.003889 -0.004224 0.003221 -0.002630 0.001548 0.002241 -0.000253 -0.003726 0.000080 -0.001545 0.002420 0.002430 0.000846 -0.002406 -0.000819 0.000443 -0.002168 -0.004422 -0.000117 -0.002661 -0.002669 0.000659 -0.002573 0.002630 -0.001591 0.003591 -0.003243 -0.001610 0.002432 -0.002348 -0.004382 -0.000916 0.003119 -0.001367 0.004227 0.001831 -0.002908 0.004858 -0.004780 -0.003891 0.003177 -0.002960 0.003629 0.003910 0.002847 -0.001484 -0.002723 -0.000149 -0.000093 -0.004993 -0.003738 0.000791 0.000718 0.004829 0.003057 -0.003371 0.004281 -0.001234 0.003235 -0.001002 0.002160 0.000188 0.004084 0.002613 -0.002065 0.004644 -0.004114 0.004427 -0.001726 0.000646 0.001255 0.004106 0.001986 -0.001101 -0.004638 0.003559 0.000394 0.002618 
（ -0.004015 -0.002691 -0.002462 -0.002470 0.003183 0.002531 -0.000335 0.002168 -0.000521 -0.001297 -0.004150 -0.002818 0.000220 -0.002296 -0.002482 -0.004275 0.003116 0.004215 -0.001583 0.003907 -0.001985 -0.004922 -0.004928 -0.000509 -0.002079 0.000196 -0.003731 0.003769 -0.002229 0.001357 0.003662 -0.000180 -0.004792 0.003001 0.000854 0.003304 0.000714 0.002350 0.004400 0.002655 -0.003540 -0.001170 0.003075 -0.001389 -0.002007 0.004501 -0.001474 0.004496 0.002767 0.003907 0.004633 -0.003981 0.000953 0.003991 -0.002506 0.001548 -0.004747 0.004461 -0.003696 0.001780 0.000794 -0.002807 0.002374 -0.000019 -0.004767 -0.003223 -0.000240 0.002069 -0.001175 0.000296 0.004653 -0.003831 0.004190 -0.002940 -0.004092 0.003213 -0.003788 -0.000483 -0.004901 -0.003652 0.002993 0.001720 -0.003664 0.001485 0.004418 0.001025 -0.004477 -0.003331 0.003236 -0.003175 0.001994 0.002973 0.004451 0.001181 -0.003119 0.003525 -0.004160 -0.001282 0.004254 0.004114 
） -0.002384 -0.003723 0.000444 0.002934 0.002356 0.003545 0.004388 0.000944 -0.004776 0.002498 -0.002525 0.001347 0.003892 -0.002331 0.003627 -0.000076 -0.001502 -0.003906 -0.000765 0.004959 0.001714 -0.002696 0.003218 -0.002777 -0.001315 0.003331 -0.003031 0.000011 -0.002927 -0.001303 0.004411 -0.000904 -0.002965 0.000444 0.001934 0.002763 0.001228 -0.001903 -0.001548 0.001789 0.004805 0.003695 -0.004631 -0.000543 -0.004585 0.001758 -0.003404 0.001551 0.003233 -0.000677 -0.001464 -0.003654 0.000898 -0.004079 0.000096 0.004635 0.003576 0.003590 0.002681 -0.000316 -0.001085 -0.003155 0.000195 -0.002717 -0.002921 0.002736 -0.000953 -0.004287 0.000724 0.000780 -0.001856 -0.004245 -0.005001 0.003016 -0.001108 0.000693 -0.002431 0.003971 -0.004806 -0.003701 -0.001414 0.000677 0.003466 0.000865 0.000707 0.002668 0.002602 -0.004839 -0.000914 0.001972 0.004015 0.002483 0.001383 0.003124 0.001607 -0.001403 -0.002252 0.003151 0.001788 0.001796 
公司 0.000845 0.001559 0.003511 0.002821 -0.004114 0.000470 -0.002017 -0.004999 0.000306 0.004349 -0.000600 0.004170 0.004533 0.000148 0.003997 -0.001486 0.001181 -0.002450 0.000716 -0.001119 -0.004818 -0.001521 0.001006 -0.001627 0.004469 -0.002466 -0.001375 0.003039 -0.000977 0.001716 0.000185 0.001046 0.001524 0.000543 0.004397 0.003083 -0.002699 -0.003978 0.002811 0.002496 0.003768 0.002782 -0.000767 -0.004816 0.001192 -0.002214 0.000168 -0.000695 0.002194 0.000500 0.004479 -0.004404 0.001976 0.003080 0.003580 -0.002553 -0.001776 0.000024 0.001286 0.000599 0.000978 -0.001667 0.004152 0.003286 0.002961 -0.002426 0.001002 -0.003596 -0.000605 -0.000264 0.003246 0.003132 -0.002193 -0.000688 0.004741 -0.000701 -0.001636 0.003547 0.001919 0.003124 0.003910 0.001681 0.003900 -0.004440 -0.000574 -0.004065 0.001738 -0.000388 0.002600 0.000697 -0.000419 0.001329 0.003545 0.003158 0.003817 -0.001191 0.004936 0.002764 0.003155 0.002916 
分公司 0.001908 0.001418 -0.000635 -0.003199 0.002710 0.004086 -0.004342 -0.003600 -0.003956 -0.002444 -0.000700 0.000202 -0.003977 0.000806 -0.001258 -0.001345 -0.002361 -0.003111 -0.004377 0.005160 -0.002727 -0.000573 0.003556 -0.005020 -0.003302 -0.003894 -0.001088 -0.002526 -0.002498 -0.003842 0.001159 0.002615 -0.004936 0.001638 0.000859 0.003813 -0.002189 -0.003034 0.002669 -0.003237 0.004734 -0.000649 0.002359 0.000421 -0.000733 -0.001632 -0.000614 0.004760 -0.003881 -0.004270 -0.004864 0.003276 0.003070 -0.003678 0.003039 0.001993 0.000537 -0.002860 -0.000286 -0.000995 0.000905 -0.002586 0.004423 -0.004885 -0.000696 -0.000421 -0.001687 0.003715 0.003782 -0.002020 0.005115 0.000400 0.004019 -0.000759 0.001106 0.003511 0.002452 0.003974 -0.004621 0.003754 -0.004541 0.003096 0.000155 0.005057 -0.000395 0.001656 -0.001944 0.001941 0.005173 -0.003731 -0.003638 0.004065 0.004740 -0.002931 0.003692 0.001244 0.003752 -0.004209 0.001003 -0.003059 
集团 0.000073 -0.003113 0.002955 -0.002976 0.003719 -0.002333 -0.004631 -0.000117 -0.003221 -0.002498 -0.002405 -0.003599 -0.004885 -0.001870 0.000779 -0.000387 -0.003705 0.004595 -0.000969 -0.004557 -0.000179 0.003535 -0.001488 0.001799 -0.000787 0.004719 -0.001840 0.000051 -0.000916 0.000143 -0.000368 0.003129 -0.002857 0.004212 -0.003514 -0.003147 0.003980 0.003995 -0.004569 -0.000560 0.001648 -0.000862 -0.004907 0.001943 -0.004195 0.001581 -0.002848 -0.002599 0.003656 -0.004190 -0.004554 0.001551 -0.004405 -0.001043 -0.003803 0.002885 0.004358 0.000535 -0.001547 0.002066 0.004963 0.002481 0.003692 0.002388 -0.004928 -0.000505 -0.004177 -0.000317 0.005019 -0.001441 0.001032 0.002105 -0.002768 -0.001119 -0.001753 0.000522 -0.003308 0.003152 -0.001047 -0.001825 0.001771 -0.004660 -0.002554 0.001120 0.002035 0.002669 -0.000485 -0.002934 0.000222 0.004416 0.004435 -0.002583 0.001399 0.003111 0.003581 0.004997 0.003408 0.002979 0.000532 -0.004243 
商业 -0.003494 0.001041 0.002117 -0.002125 0.003228 -0.003019 -0.003010 0.002354 -0.001434 0.002738 -0.003348 0.002354 0.000398 0.002753 -0.004935 0.003595 -0.001138 0.004222 -0.001470 0.004541 -0.003591 -0.003546 -0.004007 -0.004357 -0.001545 0.001808 -0.001176 0.000570 0.002491 0.004580 0.001091 0.004860 -0.001319 0.001833 -0.001057 -0.003176 -0.000109 0.003123 0.001464 -0.002729 0.000963 0.000465 -0.000107 -0.000495 -0.000236 -0.001573 -0.001661 -0.000685 -0.003597 0.004000 0.003235 0.004893 0.003468 -0.003309 0.003194 -0.002845 -0.003849 -0.001339 -0.000141 -0.000745 0.002164 0.004253 -0.002889 -0.002981 0.001582 0.000663 0.001363 -0.001211 -0.002841 -0.002636 0.001458 -0.004736 0.004032 -0.003714 -0.001284 -0.000185 -0.000336 0.002213 -0.002800 -0.001925 0.004550 0.001901 0.003436 -0.001476 0.001108 -0.004978 -0.004012 0.001706 0.004544 0.003576 -0.003440 0.001172 0.002465 0.002103 -0.001162 0.002483 -0.004948 -0.002346 -0.000600 0.004021 
: -0.004894 -0.000297 -0.002961 -0.003542 -0.002374 0.000336 0.003216 0.003229 0.000312 0.004064 0.001825 0.000048 0.003321 -0.002080 -0.000728 -0.004802 -0.000692 0.001434 0.004463 -0.000541 0.003430 -0.003363 -0.001195 -0.003888 0.003342 -0.001939 -0.003797 0.000939 -0.000798 0.002737 0.003064 0.002222 0.003666 0.000196 -0.001706 0.000741 0.001889 0.002469 0.003299 -0.000223 0.001528 0.004089 0.001986 -0.004888 0.002740 0.002085 0.000761 -0.004973 -0.001820 -0.004011 -0.001469 0.000303 0.003005 -0.002167 -0.003300 0.004223 0.004871 0.002148 -0.000824 0.002565 0.003934 -0.004036 0.002365 0.003613 0.002850 -0.001186 -0.004826 -0.001852 -0.003223 0.002728 -0.000993 -0.000550 0.003369 0.002238 -0.002227 0.003300 0.002784 0.004375 -0.002124 -0.002019 -0.002323 -0.001330 -0.001777 0.004273 0.003205 -0.002846 0.000221 -0.004542 -0.002976 0.004360 -0.002225 -0.002684 -0.000710 -0.002683 -0.002708 -0.001870 0.002660 -0.004443 -0.002321 -0.001320 
